<?xml version="1.0"?>
<opencv_storage>
<myhaar type_id="opencv-haar-classifier">
  <size>
    24 24</size>
  <stages>
    <_>
      <trees>
        <_>
          <_>
            <feature>
              <rects>
                <_>
                  0 1 18 12 -1.</_>
                <_>
                  6 5 6 4 9.</_></rects>
              <tilted>0</tilted></feature>
            <threshold>0.2999989986419678</threshold>
            <left_val>-0.8543546199798584</left_val>
            <right_val>0.9563044905662537</right_val></_></_>
        <_>
          <_>
            <feature>
              <rects>
                <_>
                  8 1 11 9 -1.</_>
                <_>
                  8 4 11 3 3.</_></rects>
              <tilted>0</tilted></feature>
            <threshold>0.0265548396855593</threshold>
            <left_val>-1.</left_val>
            <right_val>0.6815654039382935</right_val></_></_></trees>
      <stage_threshold>-0.1727892011404038</stage_threshold>
      <parent>-1</parent>
      <next>-1</next></_>
    <_>
      <trees>
        <_>
          <_>
            <feature>
              <rects>
                <_>
                  4 20 11 4 -1.</_>
                <_>
                  4 21 11 2 2.</_></rects>
              <tilted>0</tilted></feature>
            <threshold>5.1202578470110893e-003</threshold>
            <left_val>-1.</left_val>
            <right_val>0.7477493286132813</right_val></_></_></trees>
      <stage_threshold>0.7477493286132813</stage_threshold>
      <parent>0</parent>
      <next>-1</next></_>
    <_>
      <trees>
        <_>
          <_>
            <feature>
              <rects>
                <_>
                  7 9 3 6 -1.</_>
                <_>
                  5 11 3 2 3.</_></rects>
              <tilted>1</tilted></feature>
            <threshold>0.0194854196161032</threshold>
            <left_val>-0.8499615192413330</left_val>
            <right_val>0.8942254185676575</right_val></_></_>
        <_>
          <_>
            <feature>
              <rects>
                <_>
                  0 3 24 9 -1.</_>
                <_>
                  8 6 8 3 9.</_></rects>
              <tilted>0</tilted></feature>
            <threshold>0.2333564013242722</threshold>
            <left_val>-0.8817595243453980</left_val>
            <right_val>0.8892087936401367</right_val></_></_></trees>
      <stage_threshold>0.0124658299610019</stage_threshold>
      <parent>1</parent>
      <next>-1</next></_>
    <_>
      <trees>
        <_>
          <_>
            <feature>
              <rects>
                <_>
                  12 7 5 2 -1.</_>
                <_>
                  12 7 5 1 2.</_></rects>
              <tilted>1</tilted></feature>
            <threshold>-1.4853619504719973e-003</threshold>
            <left_val>0.8834952116012573</left_val>
            <right_val>-1.0000029802322388</right_val></_></_></trees>
      <stage_threshold>0.8834952116012573</stage_threshold>
      <parent>2</parent>
      <next>-1</next></_>
    <_>
      <trees>
        <_>
          <_>
            <feature>
              <rects>
                <_>
                  3 3 15 20 -1.</_>
                <_>
                  8 3 5 20 3.</_></rects>
              <tilted>0</tilted></feature>
            <threshold>0.0856135487556458</threshold>
            <left_val>-1.</left_val>
            <right_val>0.5901650786399841</right_val></_></_></trees>
      <stage_threshold>0.5901650786399841</stage_threshold>
      <parent>3</parent>
      <next>-1</next></_>
    <_>
      <trees>
        <_>
          <_>
            <feature>
              <rects>
                <_>
                  6 2 11 9 -1.</_>
                <_>
                  6 5 11 3 3.</_></rects>
              <tilted>0</tilted></feature>
            <threshold>0.0734666064381599</threshold>
            <left_val>-0.8313043117523193</left_val>
            <right_val>0.6967946290969849</right_val></_></_>
        <_>
          <_>
            <feature>
              <rects>
                <_>
                  11 8 11 16 -1.</_>
                <_>
                  11 12 11 8 2.</_></rects>
              <tilted>0</tilted></feature>
            <threshold>5.6338948197662830e-003</threshold>
            <left_val>-0.8111770749092102</left_val>
            <right_val>0.2928659021854401</right_val></_></_>
        <_>
          <_>
            <feature>
              <rects>
                <_>
                  5 6 14 14 -1.</_>
                <_>
                  5 6 7 7 2.</_>
                <_>
                  12 13 7 7 2.</_></rects>
              <tilted>0</tilted></feature>
            <threshold>0.0265105795115232</threshold>
            <left_val>0.6241044998168945</left_val>
            <right_val>-1.</right_val></_></_></trees>
      <stage_threshold>0.0856661200523376</stage_threshold>
      <parent>4</parent>
      <next>-1</next></_>
    <_>
      <trees>
        <_>
          <_>
            <feature>
              <rects>
                <_>
                  10 8 3 14 -1.</_>
                <_>
                  10 15 3 7 2.</_></rects>
              <tilted>0</tilted></feature>
            <threshold>-0.0130185401067138</threshold>
            <left_val>0.5519999861717224</left_val>
            <right_val>-1.0000040531158447</right_val></_></_></trees>
      <stage_threshold>0.5519999861717224</stage_threshold>
      <parent>5</parent>
      <next>-1</next></_>
    <_>
      <trees>
        <_>
          <_>
            <feature>
              <rects>
                <_>
                  7 0 7 12 -1.</_>
                <_>
                  7 4 7 4 3.</_></rects>
              <tilted>0</tilted></feature>
            <threshold>0.1010311990976334</threshold>
            <left_val>-0.7155427932739258</left_val>
            <right_val>0.8428345918655396</right_val></_></_>
        <_>
          <_>
            <feature>
              <rects>
                <_>
                  16 20 4 4 -1.</_>
                <_>
                  16 21 4 2 2.</_></rects>
              <tilted>0</tilted></feature>
            <threshold>-3.6683959478978068e-005</threshold>
            <left_val>0.4611237943172455</left_val>
            <right_val>-0.8408787846565247</right_val></_></_></trees>
      <stage_threshold>-0.2544189989566803</stage_threshold>
      <parent>6</parent>
      <next>-1</next></_>
    <_>
      <trees>
        <_>
          <_>
            <feature>
              <rects>
                <_>
                  6 9 4 3 -1.</_>
                <_>
                  6 10 4 1 3.</_></rects>
              <tilted>0</tilted></feature>
            <threshold>-3.0931609217077494e-003</threshold>
            <left_val>0.7464365959167481</left_val>
            <right_val>-0.8368400931358337</right_val></_></_>
        <_>
          <_>
            <feature>
              <rects>
                <_>
                  16 20 2 4 -1.</_>
                <_>
                  16 21 2 2 2.</_></rects>
              <tilted>0</tilted></feature>
            <threshold>2.2934090811759233e-003</threshold>
            <left_val>0.0463734306395054</left_val>
            <right_val>-0.9999973177909851</right_val></_></_>
        <_>
          <_>
            <feature>
              <rects>
                <_>
                  4 20 4 4 -1.</_>
                <_>
                  4 21 4 2 2.</_></rects>
              <tilted>0</tilted></feature>
            <threshold>1.8413120415061712e-003</threshold>
            <left_val>0.6672217845916748</left_val>
            <right_val>-0.8680865168571472</right_val></_></_></trees>
      <stage_threshold>-0.1232448965311050</stage_threshold>
      <parent>7</parent>
      <next>-1</next></_>
    <_>
      <trees>
        <_>
          <_>
            <feature>
              <rects>
                <_>
                  8 10 1 6 -1.</_>
                <_>
                  6 12 1 2 3.</_></rects>
              <tilted>1</tilted></feature>
            <threshold>9.6223317086696625e-003</threshold>
            <left_val>-0.8313043117523193</left_val>
            <right_val>0.6967945098876953</right_val></_></_>
        <_>
          <_>
            <feature>
              <rects>
                <_>
                  10 0 6 12 -1.</_>
                <_>
                  10 3 6 6 2.</_></rects>
              <tilted>0</tilted></feature>
            <threshold>0.0474617294967175</threshold>
            <left_val>-0.7511652708053589</left_val>
            <right_val>0.5655155181884766</right_val></_></_></trees>
      <stage_threshold>-0.2657889127731323</stage_threshold>
      <parent>8</parent>
      <next>-1</next></_></stages></myhaar>
</opencv_storage>
